{
    "weights": [
        [
            [
                [
                    0.5072948747114743,
                    -2.288107739862861,
                    2.302792238670356,
                    -1.8018553473429775,
                    4.361633783854433,
                    0.6676755526586076,
                    -1.0325858952601894,
                    -3.2541564082364585,
                    -4.89100624499323,
                    -0.7140935775425525,
                    -7.983201538137734,
                    -1.3242943293462268,
                    10.400471626995335,
                    -2.161156452644092,
                    4.711218169074238,
                    -0.7777449948808981,
                    4.351589089405337,
                    -3.61122788650189
                ],
                [
                    -1.24170361319839,
                    2.567842277509234,
                    -3.3916694908955503,
                    3.0201665846470993,
                    -4.455130898260083,
                    -0.3808879385872252,
                    -0.675130295883787,
                    3.9273381958103424,
                    4.19069493854317,
                    0.2743555494217836,
                    10.387850386918354,
                    1.3563760000146612,
                    -12.252314469397966,
                    3.7882505885238706,
                    -5.386869176436521,
                    2.500241511815832,
                    -4.383680890651891,
                    4.172465694924715
                ]
            ]
        ]
    ],
    "bias": [
        [
            [
                1.1214091617646467,
                -0.07302502524626983
            ]
        ]
    ]
}